Language model created by QuickLM on Sun Oct 16 18:01:28 EDT 2016
Copyright (c) 1996-2010 Carnegie Mellon University and Alexander I. Rudnicky

The model is in standard ARPA format, designed by Doug Paul while he was at MITRE.

The code that was used to produce this language model is available in Open Source.
Please visit http://www.speech.cs.cmu.edu/tools/ for more information

The (fixed) discount mass is 0.5. The backoffs are computed using the ratio method.
This model based on a corpus of 110 sentences and 49 words

\data\
ngram 1=49
ngram 2=88
ngram 3=153

\1-grams:
-0.9920 </s> -0.3010
-0.9920 <s> -0.2544
-2.7324 ALARM -0.2990
-2.7324 ALL -0.2593
-2.4314 AQUA -0.2544
-1.6185 BEDROOM -0.2593
-2.4314 BLUE -0.2544
-2.4314 BRIGHT -0.2544
-2.4314 BRIGHTER -0.2544
-3.0334 CANCEL -0.2544
-3.0334 CLEAN -0.2544
-3.0334 CLOCK -0.2994
-2.4314 CONCENTRATE -0.2544
-2.3345 DARK -0.2544
-2.4314 DEFAULT -0.2544
-2.4314 DIM -0.2544
-2.4314 DIMMER -0.2544
-3.0334 DOCK -0.2544
-2.4314 ENERGIZE -0.2544
-3.0334 GO -0.3006
-2.4314 GREEN -0.2544
-3.0334 HOME -0.2544
-1.6717 LAMP -0.2593
-3.0334 LIGHT -0.2994
-1.0378 LIGHTS -0.2593
-1.6355 LIVINGROOM -0.2593
-2.4314 MOVIE -0.2544
-3.0334 NIGHT -0.3006
-3.0334 NIGHTLIGHT -0.2994
-2.4314 NORMAL -0.2544
-2.3345 OFF -0.2544
-2.4314 ON -0.2544
-2.4314 ORANGE -0.2544
-2.4314 PINK -0.2544
-2.4314 PURPLE -0.2544
-2.4314 READING -0.2544
-2.4314 RED -0.2544
-2.4314 RELAX -0.2544
-2.7324 ROMANTIC -0.2544
-2.3345 ROOMBA -0.2990
-2.4314 SNOOZE -0.2544
-3.0334 SOPHIA -0.2544
-3.0334 START -0.2544
-3.0334 STOP -0.2544
-3.0334 STRETCH -0.2544
-1.6717 STRIP -0.2593
-2.4314 TEAL -0.2544
-2.7324 WARM -0.2544
-2.4314 WHITE -0.2544

\2-grams:
-2.0414 <s> ALARM 0.0000
-2.0414 <s> ALL 0.0000
-0.9274 <s> BEDROOM 0.0000
-2.3424 <s> CANCEL 0.0000
-0.9807 <s> LAMP 0.0000
-0.9445 <s> LIVINGROOM 0.0000
-2.3424 <s> NIGHT 0.0000
-2.3424 <s> NIGHTLIGHT 0.0000
-1.6435 <s> ROOMBA 0.0000
-2.3424 <s> SOPHIA 0.0000
-0.9807 <s> STRIP 0.0000
-0.6021 ALARM CLOCK 0.0000
-0.6021 ALARM SNOOZE 0.0000
-0.3010 ALL LIGHTS -0.2785
-0.3010 AQUA </s> -0.3010
-0.3010 BEDROOM LIGHTS 0.0000
-0.3010 BLUE </s> -0.3010
-0.3010 BRIGHT </s> -0.3010
-0.3010 BRIGHTER </s> -0.3010
-0.3010 CANCEL </s> -0.3010
-0.3010 CLEAN </s> -0.3010
-0.3010 CLOCK SNOOZE 0.0000
-0.3010 CONCENTRATE </s> -0.3010
-0.3010 DARK </s> -0.3010
-0.3010 DEFAULT </s> -0.3010
-0.3010 DIM </s> -0.3010
-0.3010 DIMMER </s> -0.3010
-0.3010 DOCK </s> -0.3010
-0.3010 ENERGIZE </s> -0.3010
-0.3010 GO HOME 0.0000
-0.3010 GREEN </s> -0.3010
-0.3010 HOME </s> -0.3010
-0.3010 LAMP LIGHTS -0.0214
-0.3010 LIGHT SNOOZE 0.0000
-1.6946 LIGHTS AQUA 0.0000
-1.6946 LIGHTS BLUE 0.0000
-1.6946 LIGHTS BRIGHT 0.0000
-1.6946 LIGHTS BRIGHTER 0.0000
-1.6946 LIGHTS CONCENTRATE 0.0000
-1.5977 LIGHTS DARK 0.0000
-1.6946 LIGHTS DEFAULT 0.0000
-1.6946 LIGHTS DIM 0.0000
-1.6946 LIGHTS DIMMER 0.0000
-1.6946 LIGHTS ENERGIZE 0.0000
-1.6946 LIGHTS GREEN 0.0000
-1.6946 LIGHTS MOVIE 0.0000
-1.6946 LIGHTS NORMAL 0.0000
-1.5977 LIGHTS OFF 0.0000
-1.6946 LIGHTS ON 0.0000
-1.6946 LIGHTS ORANGE 0.0000
-1.6946 LIGHTS PINK 0.0000
-1.6946 LIGHTS PURPLE 0.0000
-1.6946 LIGHTS READING 0.0000
-1.6946 LIGHTS RED 0.0000
-1.6946 LIGHTS RELAX 0.0000
-1.9956 LIGHTS ROMANTIC 0.0000
-2.2967 LIGHTS STRETCH 0.0000
-1.6946 LIGHTS TEAL 0.0000
-1.9956 LIGHTS WARM 0.0000
-1.6946 LIGHTS WHITE 0.0000
-0.3010 LIVINGROOM LIGHTS -0.0044
-0.3010 MOVIE </s> -0.3010
-0.3010 NIGHT LIGHT 0.0000
-0.3010 NIGHTLIGHT SNOOZE 0.0000
-0.3010 NORMAL </s> -0.3010
-0.3010 OFF </s> -0.3010
-0.3010 ON </s> -0.3010
-0.3010 ORANGE </s> -0.3010
-0.3010 PINK </s> -0.3010
-0.3010 PURPLE </s> -0.3010
-0.3010 READING </s> -0.3010
-0.3010 RED </s> -0.3010
-0.3010 RELAX </s> -0.3010
-0.3010 ROMANTIC </s> -0.3010
-1.0000 ROOMBA CLEAN 0.0000
-1.0000 ROOMBA DOCK 0.0000
-1.0000 ROOMBA GO 0.0000
-1.0000 ROOMBA START 0.0000
-1.0000 ROOMBA STOP 0.0000
-0.3010 SNOOZE </s> -0.3010
-0.3010 SOPHIA </s> -0.3010
-0.3010 START </s> -0.3010
-0.3010 STOP </s> -0.3010
-0.3010 STRETCH </s> -0.3010
-0.3010 STRIP LIGHTS -0.0214
-0.3010 TEAL </s> -0.3010
-0.3010 WARM </s> -0.3010
-0.3010 WHITE </s> -0.3010

\3-grams:
-0.6021 <s> ALARM CLOCK
-0.6021 <s> ALARM SNOOZE
-0.3010 <s> ALL LIGHTS
-0.3010 <s> BEDROOM LIGHTS
-0.3010 <s> CANCEL </s>
-0.3010 <s> LAMP LIGHTS
-0.3010 <s> LIVINGROOM LIGHTS
-0.3010 <s> NIGHT LIGHT
-0.3010 <s> NIGHTLIGHT SNOOZE
-1.0000 <s> ROOMBA CLEAN
-1.0000 <s> ROOMBA DOCK
-1.0000 <s> ROOMBA GO
-1.0000 <s> ROOMBA START
-1.0000 <s> ROOMBA STOP
-0.3010 <s> SOPHIA </s>
-0.3010 <s> STRIP LIGHTS
-0.3010 ALARM CLOCK SNOOZE
-0.3010 ALARM SNOOZE </s>
-0.6021 ALL LIGHTS DARK
-0.6021 ALL LIGHTS OFF
-1.7160 BEDROOM LIGHTS AQUA
-1.7160 BEDROOM LIGHTS BLUE
-1.7160 BEDROOM LIGHTS BRIGHT
-1.7160 BEDROOM LIGHTS BRIGHTER
-1.7160 BEDROOM LIGHTS CONCENTRATE
-1.7160 BEDROOM LIGHTS DARK
-1.7160 BEDROOM LIGHTS DEFAULT
-1.7160 BEDROOM LIGHTS DIM
-1.7160 BEDROOM LIGHTS DIMMER
-1.7160 BEDROOM LIGHTS ENERGIZE
-1.7160 BEDROOM LIGHTS GREEN
-1.7160 BEDROOM LIGHTS MOVIE
-1.7160 BEDROOM LIGHTS NORMAL
-1.7160 BEDROOM LIGHTS OFF
-1.7160 BEDROOM LIGHTS ON
-1.7160 BEDROOM LIGHTS ORANGE
-1.7160 BEDROOM LIGHTS PINK
-1.7160 BEDROOM LIGHTS PURPLE
-1.7160 BEDROOM LIGHTS READING
-1.7160 BEDROOM LIGHTS RED
-1.7160 BEDROOM LIGHTS RELAX
-1.7160 BEDROOM LIGHTS ROMANTIC
-1.7160 BEDROOM LIGHTS STRETCH
-1.7160 BEDROOM LIGHTS TEAL
-1.7160 BEDROOM LIGHTS WARM
-1.7160 BEDROOM LIGHTS WHITE
-0.3010 CLOCK SNOOZE </s>
-0.3010 GO HOME </s>
-1.6628 LAMP LIGHTS AQUA
-1.6628 LAMP LIGHTS BLUE
-1.6628 LAMP LIGHTS BRIGHT
-1.6628 LAMP LIGHTS BRIGHTER
-1.6628 LAMP LIGHTS CONCENTRATE
-1.6628 LAMP LIGHTS DARK
-1.6628 LAMP LIGHTS DEFAULT
-1.6628 LAMP LIGHTS DIM
-1.6628 LAMP LIGHTS DIMMER
-1.6628 LAMP LIGHTS ENERGIZE
-1.6628 LAMP LIGHTS GREEN
-1.6628 LAMP LIGHTS MOVIE
-1.6628 LAMP LIGHTS NORMAL
-1.6628 LAMP LIGHTS OFF
-1.6628 LAMP LIGHTS ON
-1.6628 LAMP LIGHTS ORANGE
-1.6628 LAMP LIGHTS PINK
-1.6628 LAMP LIGHTS PURPLE
-1.6628 LAMP LIGHTS READING
-1.6628 LAMP LIGHTS RED
-1.6628 LAMP LIGHTS RELAX
-1.6628 LAMP LIGHTS TEAL
-1.6628 LAMP LIGHTS WHITE
-0.3010 LIGHT SNOOZE </s>
-0.3010 LIGHTS AQUA </s>
-0.3010 LIGHTS BLUE </s>
-0.3010 LIGHTS BRIGHT </s>
-0.3010 LIGHTS BRIGHTER </s>
-0.3010 LIGHTS CONCENTRATE </s>
-0.3010 LIGHTS DARK </s>
-0.3010 LIGHTS DEFAULT </s>
-0.3010 LIGHTS DIM </s>
-0.3010 LIGHTS DIMMER </s>
-0.3010 LIGHTS ENERGIZE </s>
-0.3010 LIGHTS GREEN </s>
-0.3010 LIGHTS MOVIE </s>
-0.3010 LIGHTS NORMAL </s>
-0.3010 LIGHTS OFF </s>
-0.3010 LIGHTS ON </s>
-0.3010 LIGHTS ORANGE </s>
-0.3010 LIGHTS PINK </s>
-0.3010 LIGHTS PURPLE </s>
-0.3010 LIGHTS READING </s>
-0.3010 LIGHTS RED </s>
-0.3010 LIGHTS RELAX </s>
-0.3010 LIGHTS ROMANTIC </s>
-0.3010 LIGHTS STRETCH </s>
-0.3010 LIGHTS TEAL </s>
-0.3010 LIGHTS WARM </s>
-0.3010 LIGHTS WHITE </s>
-1.6990 LIVINGROOM LIGHTS AQUA
-1.6990 LIVINGROOM LIGHTS BLUE
-1.6990 LIVINGROOM LIGHTS BRIGHT
-1.6990 LIVINGROOM LIGHTS BRIGHTER
-1.6990 LIVINGROOM LIGHTS CONCENTRATE
-1.6990 LIVINGROOM LIGHTS DARK
-1.6990 LIVINGROOM LIGHTS DEFAULT
-1.6990 LIVINGROOM LIGHTS DIM
-1.6990 LIVINGROOM LIGHTS DIMMER
-1.6990 LIVINGROOM LIGHTS ENERGIZE
-1.6990 LIVINGROOM LIGHTS GREEN
-1.6990 LIVINGROOM LIGHTS MOVIE
-1.6990 LIVINGROOM LIGHTS NORMAL
-1.6990 LIVINGROOM LIGHTS OFF
-1.6990 LIVINGROOM LIGHTS ON
-1.6990 LIVINGROOM LIGHTS ORANGE
-1.6990 LIVINGROOM LIGHTS PINK
-1.6990 LIVINGROOM LIGHTS PURPLE
-1.6990 LIVINGROOM LIGHTS READING
-1.6990 LIVINGROOM LIGHTS RED
-1.6990 LIVINGROOM LIGHTS RELAX
-1.6990 LIVINGROOM LIGHTS ROMANTIC
-1.6990 LIVINGROOM LIGHTS TEAL
-1.6990 LIVINGROOM LIGHTS WARM
-1.6990 LIVINGROOM LIGHTS WHITE
-0.3010 NIGHT LIGHT SNOOZE
-0.3010 NIGHTLIGHT SNOOZE </s>
-0.3010 ROOMBA CLEAN </s>
-0.3010 ROOMBA DOCK </s>
-0.3010 ROOMBA GO HOME
-0.3010 ROOMBA START </s>
-0.3010 ROOMBA STOP </s>
-1.6628 STRIP LIGHTS AQUA
-1.6628 STRIP LIGHTS BLUE
-1.6628 STRIP LIGHTS BRIGHT
-1.6628 STRIP LIGHTS BRIGHTER
-1.6628 STRIP LIGHTS CONCENTRATE
-1.6628 STRIP LIGHTS DARK
-1.6628 STRIP LIGHTS DEFAULT
-1.6628 STRIP LIGHTS DIM
-1.6628 STRIP LIGHTS DIMMER
-1.6628 STRIP LIGHTS ENERGIZE
-1.6628 STRIP LIGHTS GREEN
-1.6628 STRIP LIGHTS MOVIE
-1.6628 STRIP LIGHTS NORMAL
-1.6628 STRIP LIGHTS OFF
-1.6628 STRIP LIGHTS ON
-1.6628 STRIP LIGHTS ORANGE
-1.6628 STRIP LIGHTS PINK
-1.6628 STRIP LIGHTS PURPLE
-1.6628 STRIP LIGHTS READING
-1.6628 STRIP LIGHTS RED
-1.6628 STRIP LIGHTS RELAX
-1.6628 STRIP LIGHTS TEAL
-1.6628 STRIP LIGHTS WHITE

\end\
